digraph Tree {
node [shape=box, style="filled, rounded", color="black", fontname=helvetica] ;
edge [fontname=helvetica] ;
0 [label=<changes_in_node &le; 2.5<br/>gini = 0.4816<br/>samples = 99<br/>value = [59, 40]<br/>class = metastases>, fillcolor="#e5813952"] ;
1 [label=<block_of_affere &le; 0.5<br/>gini = 0.421<br/>samples = 83<br/>value = [58, 25]<br/>class = metastases>, fillcolor="#e5813991"] ;
0 -> 1 [labeldistance=2.5, labelangle=45, headlabel="True"] ;
2 [label=<special_forms &le; 0.5<br/>gini = 0.4875<br/>samples = 38<br/>value = [16, 22]<br/>class = malign_lymph>, fillcolor="#399de546"] ;
1 -> 2 ;
3 [label=<changes_in_stru &le; 3.5<br/>gini = 0.2778<br/>samples = 12<br/>value = [10, 2]<br/>class = metastases>, fillcolor="#e58139cc"] ;
2 -> 3 ;
4 [label=<gini = 0.2449<br/>samples = 7<br/>value = [6, 1]<br/>class = metastases>, fillcolor="#e58139d4"] ;
3 -> 4 ;
5 [label=<gini = 0.32<br/>samples = 5<br/>value = [4, 1]<br/>class = metastases>, fillcolor="#e58139bf"] ;
3 -> 5 ;
6 [label=<dislocation_of &le; 0.5<br/>gini = 0.355<br/>samples = 26<br/>value = [6, 20]<br/>class = malign_lymph>, fillcolor="#399de5b3"] ;
2 -> 6 ;
7 [label=<gini = 0.4938<br/>samples = 9<br/>value = [5, 4]<br/>class = metastases>, fillcolor="#e5813933"] ;
6 -> 7 ;
8 [label=<gini = 0.1107<br/>samples = 17<br/>value = [1, 16]<br/>class = malign_lymph>, fillcolor="#399de5ef"] ;
6 -> 8 ;
9 [label=<changes_in_node &le; 1.5<br/>gini = 0.1244<br/>samples = 45<br/>value = [42, 3]<br/>class = metastases>, fillcolor="#e58139ed"] ;
1 -> 9 ;
10 [label=<gini = 0.375<br/>samples = 8<br/>value = [6, 2]<br/>class = metastases>, fillcolor="#e58139aa"] ;
9 -> 10 ;
11 [label=<no_of_nodes_in &le; 2.5<br/>gini = 0.0526<br/>samples = 37<br/>value = [36, 1]<br/>class = metastases>, fillcolor="#e58139f8"] ;
9 -> 11 ;
12 [label=<gini = 0.0<br/>samples = 29<br/>value = [29, 0]<br/>class = metastases>, fillcolor="#e58139ff"] ;
11 -> 12 ;
13 [label=<gini = 0.2188<br/>samples = 8<br/>value = [7, 1]<br/>class = metastases>, fillcolor="#e58139db"] ;
11 -> 13 ;
14 [label=<no_of_nodes_in &le; 2.5<br/>gini = 0.1172<br/>samples = 16<br/>value = [1, 15]<br/>class = malign_lymph>, fillcolor="#399de5ee"] ;
0 -> 14 [labeldistance=2.5, labelangle=-45, headlabel="False"] ;
15 [label=<gini = 0.32<br/>samples = 5<br/>value = [1, 4]<br/>class = malign_lymph>, fillcolor="#399de5bf"] ;
14 -> 15 ;
16 [label=<gini = 0.0<br/>samples = 11<br/>value = [0, 11]<br/>class = malign_lymph>, fillcolor="#399de5ff"] ;
14 -> 16 ;
}