digraph Tree {
node [shape=box, style="filled, rounded", color="black", fontname=helvetica] ;
edge [fontname=helvetica] ;
0 [label=<block_of_affere &le; 0.5<br/>gini = 0.4816<br/>samples = 99<br/>value = [59, 40]<br/>class = metastases>, fillcolor="#e5813952"] ;
1 [label=<early_uptake_in &le; 0.5<br/>gini = 0.375<br/>samples = 40<br/>value = [10, 30]<br/>class = malign_lymph>, fillcolor="#399de5aa"] ;
0 -> 1 [labeldistance=2.5, labelangle=45, headlabel="True"] ;
2 [label=<lymphatics &le; 1.5<br/>gini = 0.42<br/>samples = 10<br/>value = [7, 3]<br/>class = metastases>, fillcolor="#e5813992"] ;
1 -> 2 ;
3 [label=<gini = 0.32<br/>samples = 5<br/>value = [4, 1]<br/>class = metastases>, fillcolor="#e58139bf"] ;
2 -> 3 ;
4 [label=<gini = 0.48<br/>samples = 5<br/>value = [3, 2]<br/>class = metastases>, fillcolor="#e5813955"] ;
2 -> 4 ;
5 [label=<no_of_nodes_in &le; 2.5<br/>gini = 0.18<br/>samples = 30<br/>value = [3, 27]<br/>class = malign_lymph>, fillcolor="#399de5e3"] ;
1 -> 5 ;
6 [label=<changes_in_stru &le; 5.0<br/>gini = 0.3367<br/>samples = 14<br/>value = [3, 11]<br/>class = malign_lymph>, fillcolor="#399de5b9"] ;
5 -> 6 ;
7 [label=<gini = 0.4688<br/>samples = 8<br/>value = [3, 5]<br/>class = malign_lymph>, fillcolor="#399de566"] ;
6 -> 7 ;
8 [label=<gini = 0.0<br/>samples = 6<br/>value = [0, 6]<br/>class = malign_lymph>, fillcolor="#399de5ff"] ;
6 -> 8 ;
9 [label=<gini = 0.0<br/>samples = 16<br/>value = [0, 16]<br/>class = malign_lymph>, fillcolor="#399de5ff"] ;
5 -> 9 ;
10 [label=<no_of_nodes_in &le; 3.5<br/>gini = 0.2815<br/>samples = 59<br/>value = [49, 10]<br/>class = metastases>, fillcolor="#e58139cb"] ;
0 -> 10 [labeldistance=2.5, labelangle=-45, headlabel="False"] ;
11 [label=<changes_in_node &le; 1.5<br/>gini = 0.1128<br/>samples = 50<br/>value = [47, 3]<br/>class = metastases>, fillcolor="#e58139ef"] ;
10 -> 11 ;
12 [label=<gini = 0.375<br/>samples = 8<br/>value = [6, 2]<br/>class = metastases>, fillcolor="#e58139aa"] ;
11 -> 12 ;
13 [label=<changes_in_stru &le; 5.5<br/>gini = 0.0465<br/>samples = 42<br/>value = [41, 1]<br/>class = metastases>, fillcolor="#e58139f9"] ;
11 -> 13 ;
14 [label=<gini = 0.0<br/>samples = 32<br/>value = [32, 0]<br/>class = metastases>, fillcolor="#e58139ff"] ;
13 -> 14 ;
15 [label=<gini = 0.18<br/>samples = 10<br/>value = [9, 1]<br/>class = metastases>, fillcolor="#e58139e3"] ;
13 -> 15 ;
16 [label=<gini = 0.3457<br/>samples = 9<br/>value = [2, 7]<br/>class = malign_lymph>, fillcolor="#399de5b6"] ;
10 -> 16 ;
}