digraph Tree {
node [shape=box, style="filled, rounded", color="black", fontname=helvetica] ;
edge [fontname=helvetica] ;
0 [label=<changes_in_node &le; 2.5<br/>gini = 0.4816<br/>samples = 99<br/>value = [59, 40]<br/>class = metastases>, fillcolor="#e5813952"] ;
1 [label=<block_of_affere &le; 0.5<br/>gini = 0.421<br/>samples = 83<br/>value = [58, 25]<br/>class = metastases>, fillcolor="#e5813991"] ;
0 -> 1 [labeldistance=2.5, labelangle=45, headlabel="True"] ;
2 [label=<special_forms &le; 0.5<br/>gini = 0.4875<br/>samples = 38<br/>value = [16, 22]<br/>class = malign_lymph>, fillcolor="#399de546"] ;
1 -> 2 ;
3 [label=<extravasates &le; 0.5<br/>gini = 0.2778<br/>samples = 12<br/>value = [10, 2]<br/>class = metastases>, fillcolor="#e58139cc"] ;
2 -> 3 ;
4 [label=<no_of_nodes_in &le; 1.5<br/>gini = 0.1653<br/>samples = 11<br/>value = [10, 1]<br/>class = metastases>, fillcolor="#e58139e6"] ;
3 -> 4 ;
5 [label=<gini = 0.0<br/>samples = 9<br/>value = [9, 0]<br/>class = metastases>, fillcolor="#e58139ff"] ;
4 -> 5 ;
6 [label=<lymphatics &le; 1.5<br/>gini = 0.5<br/>samples = 2<br/>value = [1, 1]<br/>class = metastases>, fillcolor="#e5813900"] ;
4 -> 6 ;
7 [label=<gini = 0.0<br/>samples = 1<br/>value = [1, 0]<br/>class = metastases>, fillcolor="#e58139ff"] ;
6 -> 7 ;
8 [label=<gini = 0.0<br/>samples = 1<br/>value = [0, 1]<br/>class = malign_lymph>, fillcolor="#399de5ff"] ;
6 -> 8 ;
9 [label=<gini = 0.0<br/>samples = 1<br/>value = [0, 1]<br/>class = malign_lymph>, fillcolor="#399de5ff"] ;
3 -> 9 ;
10 [label=<dislocation_of &le; 0.5<br/>gini = 0.355<br/>samples = 26<br/>value = [6, 20]<br/>class = malign_lymph>, fillcolor="#399de5b3"] ;
2 -> 10 ;
11 [label=<changes_in_lym &le; 1.5<br/>gini = 0.4938<br/>samples = 9<br/>value = [5, 4]<br/>class = metastases>, fillcolor="#e5813933"] ;
10 -> 11 ;
12 [label=<early_uptake_in &le; 0.5<br/>gini = 0.32<br/>samples = 5<br/>value = [1, 4]<br/>class = malign_lymph>, fillcolor="#399de5bf"] ;
11 -> 12 ;
13 [label=<gini = 0.0<br/>samples = 1<br/>value = [1, 0]<br/>class = metastases>, fillcolor="#e58139ff"] ;
12 -> 13 ;
14 [label=<gini = 0.0<br/>samples = 4<br/>value = [0, 4]<br/>class = malign_lymph>, fillcolor="#399de5ff"] ;
12 -> 14 ;
15 [label=<gini = 0.0<br/>samples = 4<br/>value = [4, 0]<br/>class = metastases>, fillcolor="#e58139ff"] ;
11 -> 15 ;
16 [label=<lymphatics &le; 2.5<br/>gini = 0.1107<br/>samples = 17<br/>value = [1, 16]<br/>class = malign_lymph>, fillcolor="#399de5ef"] ;
10 -> 16 ;
17 [label=<gini = 0.0<br/>samples = 14<br/>value = [0, 14]<br/>class = malign_lymph>, fillcolor="#399de5ff"] ;
16 -> 17 ;
18 [label=<no_of_nodes_in &le; 3.0<br/>gini = 0.4444<br/>samples = 3<br/>value = [1, 2]<br/>class = malign_lymph>, fillcolor="#399de57f"] ;
16 -> 18 ;
19 [label=<gini = 0.0<br/>samples = 1<br/>value = [1, 0]<br/>class = metastases>, fillcolor="#e58139ff"] ;
18 -> 19 ;
20 [label=<gini = 0.0<br/>samples = 2<br/>value = [0, 2]<br/>class = malign_lymph>, fillcolor="#399de5ff"] ;
18 -> 20 ;
21 [label=<changes_in_node &le; 0.5<br/>gini = 0.1244<br/>samples = 45<br/>value = [42, 3]<br/>class = metastases>, fillcolor="#e58139ed"] ;
1 -> 21 ;
22 [label=<gini = 0.0<br/>samples = 1<br/>value = [0, 1]<br/>class = malign_lymph>, fillcolor="#399de5ff"] ;
21 -> 22 ;
23 [label=<changes_in_stru &le; 5.0<br/>gini = 0.0868<br/>samples = 44<br/>value = [42, 2]<br/>class = metastases>, fillcolor="#e58139f3"] ;
21 -> 23 ;
24 [label=<gini = 0.0<br/>samples = 33<br/>value = [33, 0]<br/>class = metastases>, fillcolor="#e58139ff"] ;
23 -> 24 ;
25 [label=<changes_in_stru &le; 6.5<br/>gini = 0.2975<br/>samples = 11<br/>value = [9, 2]<br/>class = metastases>, fillcolor="#e58139c6"] ;
23 -> 25 ;
26 [label=<gini = 0.0<br/>samples = 1<br/>value = [0, 1]<br/>class = malign_lymph>, fillcolor="#399de5ff"] ;
25 -> 26 ;
27 [label=<changes_in_node &le; 1.5<br/>gini = 0.18<br/>samples = 10<br/>value = [9, 1]<br/>class = metastases>, fillcolor="#e58139e3"] ;
25 -> 27 ;
28 [label=<lym_nodes_enlar &le; 2.5<br/>gini = 0.4444<br/>samples = 3<br/>value = [2, 1]<br/>class = metastases>, fillcolor="#e581397f"] ;
27 -> 28 ;
29 [label=<gini = 0.0<br/>samples = 1<br/>value = [1, 0]<br/>class = metastases>, fillcolor="#e58139ff"] ;
28 -> 29 ;
30 [label=<no_of_nodes_in &le; 3.0<br/>gini = 0.5<br/>samples = 2<br/>value = [1, 1]<br/>class = metastases>, fillcolor="#e5813900"] ;
28 -> 30 ;
31 [label=<gini = 0.0<br/>samples = 1<br/>value = [0, 1]<br/>class = malign_lymph>, fillcolor="#399de5ff"] ;
30 -> 31 ;
32 [label=<gini = 0.0<br/>samples = 1<br/>value = [1, 0]<br/>class = metastases>, fillcolor="#e58139ff"] ;
30 -> 32 ;
33 [label=<gini = 0.0<br/>samples = 7<br/>value = [7, 0]<br/>class = metastases>, fillcolor="#e58139ff"] ;
27 -> 33 ;
34 [label=<exclusion_of_no &le; 0.5<br/>gini = 0.1172<br/>samples = 16<br/>value = [1, 15]<br/>class = malign_lymph>, fillcolor="#399de5ee"] ;
0 -> 34 [labeldistance=2.5, labelangle=-45, headlabel="False"] ;
35 [label=<lym_nodes_enlar &le; 2.5<br/>gini = 0.5<br/>samples = 2<br/>value = [1, 1]<br/>class = metastases>, fillcolor="#e5813900"] ;
34 -> 35 ;
36 [label=<gini = 0.0<br/>samples = 1<br/>value = [1, 0]<br/>class = metastases>, fillcolor="#e58139ff"] ;
35 -> 36 ;
37 [label=<gini = 0.0<br/>samples = 1<br/>value = [0, 1]<br/>class = malign_lymph>, fillcolor="#399de5ff"] ;
35 -> 37 ;
38 [label=<gini = 0.0<br/>samples = 14<br/>value = [0, 14]<br/>class = malign_lymph>, fillcolor="#399de5ff"] ;
34 -> 38 ;
}