digraph Tree {
node [shape=box, style="filled, rounded", color="black", fontname=helvetica] ;
edge [fontname=helvetica] ;
0 [label=<special_forms &le; 1.5027<br/>gini = 0.4816<br/>samples = 99<br/>value = [59, 40]<br/>class = metastases>, fillcolor="#e5813952"] ;
1 [label=<block_of_affere &le; 0.8454<br/>gini = 0.3336<br/>samples = 52<br/>value = [41, 11]<br/>class = metastases>, fillcolor="#e58139bb"] ;
0 -> 1 [labeldistance=2.5, labelangle=45, headlabel="True"] ;
2 [label=<early_uptake_in &le; 0.1153<br/>gini = 0.4898<br/>samples = 21<br/>value = [12, 9]<br/>class = metastases>, fillcolor="#e5813940"] ;
1 -> 2 ;
3 [label=<gini = 0.4628<br/>samples = 11<br/>value = [7, 4]<br/>class = metastases>, fillcolor="#e581396d"] ;
2 -> 3 ;
4 [label=<special_forms &le; 0.9765<br/>gini = 0.5<br/>samples = 10<br/>value = [5, 5]<br/>class = metastases>, fillcolor="#e5813900"] ;
2 -> 4 ;
5 [label=<gini = 0.32<br/>samples = 5<br/>value = [4, 1]<br/>class = metastases>, fillcolor="#e58139bf"] ;
4 -> 5 ;
6 [label=<gini = 0.32<br/>samples = 5<br/>value = [1, 4]<br/>class = malign_lymph>, fillcolor="#399de5bf"] ;
4 -> 6 ;
7 [label=<no_of_nodes_in &le; 1.7192<br/>gini = 0.1207<br/>samples = 31<br/>value = [29, 2]<br/>class = metastases>, fillcolor="#e58139ed"] ;
1 -> 7 ;
8 [label=<gini = 0.0<br/>samples = 16<br/>value = [16, 0]<br/>class = metastases>, fillcolor="#e58139ff"] ;
7 -> 8 ;
9 [label=<extravasates &le; 0.8163<br/>gini = 0.2311<br/>samples = 15<br/>value = [13, 2]<br/>class = metastases>, fillcolor="#e58139d8"] ;
7 -> 9 ;
10 [label=<gini = 0.32<br/>samples = 5<br/>value = [4, 1]<br/>class = metastases>, fillcolor="#e58139bf"] ;
9 -> 10 ;
11 [label=<gini = 0.18<br/>samples = 10<br/>value = [9, 1]<br/>class = metastases>, fillcolor="#e58139e3"] ;
9 -> 11 ;
12 [label=<block_of_affere &le; 0.0948<br/>gini = 0.4726<br/>samples = 47<br/>value = [18, 29]<br/>class = malign_lymph>, fillcolor="#399de561"] ;
0 -> 12 [labeldistance=2.5, labelangle=-45, headlabel="False"] ;
13 [label=<changes_in_lym &le; 1.6471<br/>gini = 0.2688<br/>samples = 25<br/>value = [4, 21]<br/>class = malign_lymph>, fillcolor="#399de5ce"] ;
12 -> 13 ;
14 [label=<gini = 0.0<br/>samples = 13<br/>value = [0, 13]<br/>class = malign_lymph>, fillcolor="#399de5ff"] ;
13 -> 14 ;
15 [label=<gini = 0.4444<br/>samples = 12<br/>value = [4, 8]<br/>class = malign_lymph>, fillcolor="#399de57f"] ;
13 -> 15 ;
16 [label=<by_pass &le; 0.4601<br/>gini = 0.4628<br/>samples = 22<br/>value = [14, 8]<br/>class = metastases>, fillcolor="#e581396d"] ;
12 -> 16 ;
17 [label=<gini = 0.4959<br/>samples = 11<br/>value = [6, 5]<br/>class = metastases>, fillcolor="#e581392a"] ;
16 -> 17 ;
18 [label=<changes_in_stru &le; 5.3141<br/>gini = 0.3967<br/>samples = 11<br/>value = [8, 3]<br/>class = metastases>, fillcolor="#e581399f"] ;
16 -> 18 ;
19 [label=<gini = 0.32<br/>samples = 5<br/>value = [4, 1]<br/>class = metastases>, fillcolor="#e58139bf"] ;
18 -> 19 ;
20 [label=<gini = 0.4444<br/>samples = 6<br/>value = [4, 2]<br/>class = metastases>, fillcolor="#e581397f"] ;
18 -> 20 ;
}